digraph Tree {
node [shape=box, style="rounded", color="black", fontname=helvetica] ;
edge [fontname=helvetica] ;
0 [label="rec_yds <= 468.0\nmse = 1569.7\nsamples = 597\nvalue = 43.2"] ;
1 [label="rec_yds <= 175.5\nmse = 388.8\nsamples = 462\nvalue = 25.6"] ;
0 -> 1 [labeldistance=2.5, labelangle=45, headlabel="True"] ;
2 [label="rec_td <= 1.5\nmse = 68.4\nsamples = 270\nvalue = 11.7"] ;
1 -> 2 ;
3 [label="mse = 35.6\nsamples = 224\nvalue = 9.1"] ;
2 -> 3 ;
4 [label="mse = 28.3\nsamples = 46\nvalue = 24.9"] ;
2 -> 4 ;
5 [label="rec_yds <= 295.0\nmse = 190.3\nsamples = 192\nvalue = 45.0"] ;
1 -> 5 ;
6 [label="mse = 82.8\nsamples = 92\nvalue = 35.2"] ;
5 -> 6 ;
7 [label="mse = 134.1\nsamples = 100\nvalue = 53.1"] ;
5 -> 7 ;
8 [label="rec_yds <= 770.5\nmse = 884.5\nsamples = 135\nvalue = 104.1"] ;
0 -> 8 [labeldistance=2.5, labelangle=-45, headlabel="False"] ;
9 [label="rec_td <= 4.5\nmse = 234.7\nsamples = 79\nvalue = 84.5"] ;
8 -> 9 ;
10 [label="mse = 70.0\nsamples = 47\nvalue = 75.2"] ;
9 -> 10 ;
11 [label="mse = 171.4\nsamples = 32\nvalue = 97.7"] ;
9 -> 11 ;
12 [label="rec_td <= 8.5\nmse = 565.8\nsamples = 56\nvalue = 130.0"] ;
8 -> 12 ;
13 [label="mse = 238.0\nsamples = 42\nvalue = 121.2"] ;
12 -> 13 ;
14 [label="mse = 436.9\nsamples = 14\nvalue = 162.3"] ;
12 -> 14 ;
}